digraph Tree {
node [shape=box, style="filled, rounded", color="black", fontname=helvetica] ;
edge [fontname=helvetica] ;
0 [label=<Sensor_2 &le; 0.161<br/>gini = 0.667<br/>samples = 633<br/>value = [211.0, 211.0, 211.0]<br/>class = Intermediate_event>, fillcolor="#ffffff"] ;
1 [label=<Sensor_16 &le; 0.021<br/>gini = 0.529<br/>samples = 406<br/>value = [159.569, 11.362, 181.022]<br/>class = Toe off>, fillcolor="#f1e9fc"] ;
0 -> 1 [labeldistance=2.5, labelangle=45, headlabel="True"] ;
2 [label=<gini = 0.0<br/>samples = 174<br/>value = [114.731, 0.0, 0.0]<br/>class = Intermediate_event>, fillcolor="#e58139"] ;
1 -> 2 ;
3 [label=<Sensor_25 &le; 0.357<br/>gini = 0.38<br/>samples = 232<br/>value = [44.837, 11.362, 181.022]<br/>class = Toe off>, fillcolor="#a673ed"] ;
1 -> 3 ;
4 [label=<gini = 0.655<br/>samples = 30<br/>value = [11.869, 8.115, 8.071]<br/>class = Intermediate_event>, fillcolor="#fae7da"] ;
3 -> 4 ;
5 [label=<Sensor_28 &le; 0.904<br/>gini = 0.291<br/>samples = 202<br/>value = [32.969, 3.246, 172.951]<br/>class = Toe off>, fillcolor="#9b62ea"] ;
3 -> 5 ;
6 [label=<Sensor_20 &le; 0.421<br/>gini = 0.215<br/>samples = 183<br/>value = [20.441, 3.246, 172.951]<br/>class = Toe off>, fillcolor="#9254e8"] ;
5 -> 6 ;
7 [label=<gini = 0.495<br/>samples = 26<br/>value = [7.253, 1.623, 16.142]<br/>class = Toe off>, fillcolor="#c09cf2"] ;
6 -> 7 ;
8 [label=<Sensor_10 &le; 0.337<br/>gini = 0.159<br/>samples = 157<br/>value = [13.188, 1.623, 156.809]<br/>class = Toe off>, fillcolor="#8d4ce7"] ;
6 -> 8 ;
9 [label=<Sensor_15 &le; 0.254<br/>gini = 0.112<br/>samples = 140<br/>value = [9.231, 0.0, 145.279]<br/>class = Toe off>, fillcolor="#8946e7"] ;
8 -> 9 ;
10 [label=<Sensor_24 &le; 0.426<br/>gini = 0.05<br/>samples = 90<br/>value = [2.638, 0.0, 99.158]<br/>class = Toe off>, fillcolor="#843ee6"] ;
9 -> 10 ;
11 [label=<gini = 0.194<br/>samples = 17<br/>value = [1.978, 0.0, 16.142]<br/>class = Toe off>, fillcolor="#9051e8"] ;
10 -> 11 ;
12 [label=<Sensor_10 &le; 0.221<br/>gini = 0.016<br/>samples = 73<br/>value = [0.659, 0.0, 83.016]<br/>class = Toe off>, fillcolor="#823be5"] ;
10 -> 12 ;
13 [label=<gini = 0.0<br/>samples = 56<br/>value = [0.0, 0.0, 64.568]<br/>class = Toe off>, fillcolor="#8139e5"] ;
12 -> 13 ;
14 [label=<gini = 0.067<br/>samples = 17<br/>value = [0.659, 0.0, 18.448]<br/>class = Toe off>, fillcolor="#8640e6"] ;
12 -> 14 ;
15 [label=<Sensor_26 &le; 0.544<br/>gini = 0.219<br/>samples = 50<br/>value = [6.594, 0.0, 46.12]<br/>class = Toe off>, fillcolor="#9355e9"] ;
9 -> 15 ;
16 [label=<gini = 0.071<br/>samples = 32<br/>value = [1.319, 0.0, 34.59]<br/>class = Toe off>, fillcolor="#8641e6"] ;
15 -> 16 ;
17 [label=<gini = 0.431<br/>samples = 18<br/>value = [5.275, 0.0, 11.53]<br/>class = Toe off>, fillcolor="#bb94f1"] ;
15 -> 17 ;
18 [label=<gini = 0.483<br/>samples = 17<br/>value = [3.956, 1.623, 11.53]<br/>class = Toe off>, fillcolor="#b68df0"] ;
8 -> 18 ;
19 [label=<gini = 0.0<br/>samples = 19<br/>value = [12.528, 0.0, 0.0]<br/>class = Intermediate_event>, fillcolor="#e58139"] ;
5 -> 19 ;
20 [label=<Sensor_32 &le; 0.1<br/>gini = 0.451<br/>samples = 227<br/>value = [51.431, 199.638, 29.978]<br/>class = Heel Strike>, fillcolor="#7feeae"] ;
0 -> 20 [labeldistance=2.5, labelangle=-45, headlabel="False"] ;
21 [label=<Sensor_1 &le; 0.597<br/>gini = 0.192<br/>samples = 130<br/>value = [6.594, 175.292, 13.836]<br/>class = Heel Strike>, fillcolor="#4fe88f"] ;
20 -> 21 ;
22 [label=<gini = 0.386<br/>samples = 27<br/>value = [0.659, 29.215, 9.224]<br/>class = Heel Strike>, fillcolor="#7beeab"] ;
21 -> 22 ;
23 [label=<Sensor_8 &le; 0.827<br/>gini = 0.128<br/>samples = 103<br/>value = [5.934, 146.077, 4.612]<br/>class = Heel Strike>, fillcolor="#47e78a"] ;
21 -> 23 ;
24 [label=<Sensor_5 &le; 0.655<br/>gini = 0.082<br/>samples = 85<br/>value = [3.297, 126.6, 2.306]<br/>class = Heel Strike>, fillcolor="#42e686"] ;
23 -> 24 ;
25 [label=<gini = 0.26<br/>samples = 17<br/>value = [1.319, 21.1, 2.306]<br/>class = Heel Strike>, fillcolor="#59e995"] ;
24 -> 25 ;
26 [label=<Sensor_27 &le; 0.0<br/>gini = 0.036<br/>samples = 68<br/>value = [1.978, 105.5, 0.0]<br/>class = Heel Strike>, fillcolor="#3de583"] ;
24 -> 26 ;
27 [label=<gini = 0.0<br/>samples = 37<br/>value = [0.0, 60.054, 0.0]<br/>class = Heel Strike>, fillcolor="#39e581"] ;
26 -> 27 ;
28 [label=<gini = 0.08<br/>samples = 31<br/>value = [1.978, 45.446, 0.0]<br/>class = Heel Strike>, fillcolor="#42e686"] ;
26 -> 28 ;
29 [label=<gini = 0.343<br/>samples = 18<br/>value = [2.638, 19.477, 2.306]<br/>class = Heel Strike>, fillcolor="#66eb9e"] ;
23 -> 29 ;
30 [label=<Sensor_21 &le; 0.012<br/>gini = 0.607<br/>samples = 97<br/>value = [44.837, 24.346, 16.142]<br/>class = Intermediate_event>, fillcolor="#f6d5bc"] ;
20 -> 30 ;
31 [label=<gini = 0.613<br/>samples = 28<br/>value = [7.253, 6.492, 14.989]<br/>class = Toe off>, fillcolor="#d2b8f6"] ;
30 -> 31 ;
32 [label=<Sensor_24 &le; 0.515<br/>gini = 0.459<br/>samples = 69<br/>value = [37.584, 17.854, 1.153]<br/>class = Intermediate_event>, fillcolor="#f2bf9a"] ;
30 -> 32 ;
33 [label=<Sensor_24 &le; 0.28<br/>gini = 0.481<br/>samples = 51<br/>value = [26.375, 17.854, 0.0]<br/>class = Intermediate_event>, fillcolor="#f7d6bf"] ;
32 -> 33 ;
34 [label=<gini = 0.392<br/>samples = 31<br/>value = [17.803, 6.492, 0.0]<br/>class = Intermediate_event>, fillcolor="#eeaf81"] ;
33 -> 34 ;
35 [label=<gini = 0.49<br/>samples = 20<br/>value = [8.572, 11.362, 0.0]<br/>class = Heel Strike>, fillcolor="#cef9e0"] ;
33 -> 35 ;
36 [label=<gini = 0.169<br/>samples = 18<br/>value = [11.209, 0.0, 1.153]<br/>class = Intermediate_event>, fillcolor="#e88e4d"] ;
32 -> 36 ;
}