digraph Tree {
node [shape=box, style="filled, rounded", color="black", fontname=helvetica] ;
edge [fontname=helvetica] ;
0 [label=<Sensor_2 &le; 0.623<br/>gini = 0.028<br/>samples = 19972<br/>value = [19693, 125, 154]<br/>class = Intermediate_event>, fillcolor="#e5833c"] ;
1 [label=<Sensor_21 &le; 0.449<br/>gini = 0.016<br/>samples = 19854<br/>value = [19691, 15, 148]<br/>class = Intermediate_event>, fillcolor="#e5823b"] ;
0 -> 1 [labeldistance=2.5, labelangle=45, headlabel="True"] ;
2 [label=<Sensor_19 &le; 0.921<br/>gini = 0.012<br/>samples = 19732<br/>value = [19610, 11, 111]<br/>class = Intermediate_event>, fillcolor="#e5823a"] ;
1 -> 2 ;
3 [label=<Sensor_18 &le; 0.523<br/>gini = 0.012<br/>samples = 19726<br/>value = [19610, 11, 105]<br/>class = Intermediate_event>, fillcolor="#e5823a"] ;
2 -> 3 ;
4 [label=<Sensor_31 &le; 0.965<br/>gini = 0.006<br/>samples = 19070<br/>value = [19008, 11, 51]<br/>class = Intermediate_event>, fillcolor="#e5813a"] ;
3 -> 4 ;
5 [label=<Sensor_28 &le; 0.979<br/>gini = 0.006<br/>samples = 19049<br/>value = [18993, 11, 45]<br/>class = Intermediate_event>, fillcolor="#e5813a"] ;
4 -> 5 ;
6 [label=<Sensor_14 &le; 1.0<br/>gini = 0.005<br/>samples = 19021<br/>value = [18972, 10, 39]<br/>class = Intermediate_event>, fillcolor="#e5813a"] ;
5 -> 6 ;
7 [label=<Sensor_25 &le; 0.98<br/>gini = 0.005<br/>samples = 19020<br/>value = [18972, 10, 38]<br/>class = Intermediate_event>, fillcolor="#e5813a"] ;
6 -> 7 ;
8 [label=<Sensor_16 &le; 0.184<br/>gini = 0.005<br/>samples = 19009<br/>value = [18964, 10, 35]<br/>class = Intermediate_event>, fillcolor="#e58139"] ;
7 -> 8 ;
9 [label=<Sensor_18 &le; 0.495<br/>gini = 0.001<br/>samples = 16753<br/>value = [16748, 2, 3]<br/>class = Intermediate_event>, fillcolor="#e58139"] ;
8 -> 9 ;
10 [label=<Sensor_31 &le; 0.841<br/>gini = 0.0<br/>samples = 16694<br/>value = [16692, 2, 0]<br/>class = Intermediate_event>, fillcolor="#e58139"] ;
9 -> 10 ;
11 [label=<Sensor_31 &le; 0.716<br/>gini = 0.0<br/>samples = 16554<br/>value = [16553, 1, 0]<br/>class = Intermediate_event>, fillcolor="#e58139"] ;
10 -> 11 ;
12 [label=<gini = 0.0<br/>samples = 16113<br/>value = [16113, 0, 0]<br/>class = Intermediate_event>, fillcolor="#e58139"] ;
11 -> 12 ;
13 [label=<Sensor_31 &le; 0.716<br/>gini = 0.005<br/>samples = 441<br/>value = [440, 1, 0]<br/>class = Intermediate_event>, fillcolor="#e58139"] ;
11 -> 13 ;
14 [label=<gini = 0.0<br/>samples = 1<br/>value = [0, 1, 0]<br/>class = Heel Strike>, fillcolor="#39e581"] ;
13 -> 14 ;
15 [label=<gini = 0.0<br/>samples = 440<br/>value = [440, 0, 0]<br/>class = Intermediate_event>, fillcolor="#e58139"] ;
13 -> 15 ;
16 [label=<Sensor_31 &le; 0.841<br/>gini = 0.014<br/>samples = 140<br/>value = [139, 1, 0]<br/>class = Intermediate_event>, fillcolor="#e5823a"] ;
10 -> 16 ;
17 [label=<gini = 0.0<br/>samples = 1<br/>value = [0, 1, 0]<br/>class = Heel Strike>, fillcolor="#39e581"] ;
16 -> 17 ;
18 [label=<gini = 0.0<br/>samples = 139<br/>value = [139, 0, 0]<br/>class = Intermediate_event>, fillcolor="#e58139"] ;
16 -> 18 ;
19 [label=<Sensor_18 &le; 0.496<br/>gini = 0.097<br/>samples = 59<br/>value = [56, 0, 3]<br/>class = Intermediate_event>, fillcolor="#e68844"] ;
9 -> 19 ;
20 [label=<gini = 0.0<br/>samples = 1<br/>value = [0, 0, 1]<br/>class = Toe off>, fillcolor="#8139e5"] ;
19 -> 20 ;
21 [label=<Sensor_15 &le; 0.004<br/>gini = 0.067<br/>samples = 58<br/>value = [56, 0, 2]<br/>class = Intermediate_event>, fillcolor="#e68640"] ;
19 -> 21 ;
22 [label=<Sensor_22 &le; 0.345<br/>gini = 0.278<br/>samples = 12<br/>value = [10, 0, 2]<br/>class = Intermediate_event>, fillcolor="#ea9a61"] ;
21 -> 22 ;
23 [label=<gini = 0.0<br/>samples = 10<br/>value = [10, 0, 0]<br/>class = Intermediate_event>, fillcolor="#e58139"] ;
22 -> 23 ;
24 [label=<gini = 0.0<br/>samples = 2<br/>value = [0, 0, 2]<br/>class = Toe off>, fillcolor="#8139e5"] ;
22 -> 24 ;
25 [label=<gini = 0.0<br/>samples = 46<br/>value = [46, 0, 0]<br/>class = Intermediate_event>, fillcolor="#e58139"] ;
21 -> 25 ;
26 [label=<Sensor_31 &le; 0.751<br/>gini = 0.035<br/>samples = 2256<br/>value = [2216, 8, 32]<br/>class = Intermediate_event>, fillcolor="#e5833d"] ;
8 -> 26 ;
27 [label=<Sensor_21 &le; 0.428<br/>gini = 0.029<br/>samples = 2248<br/>value = [2215, 8, 25]<br/>class = Intermediate_event>, fillcolor="#e5833c"] ;
26 -> 27 ;
28 [label=<Sensor_32 &le; 0.951<br/>gini = 0.027<br/>samples = 2246<br/>value = [2215, 8, 23]<br/>class = Intermediate_event>, fillcolor="#e5833c"] ;
27 -> 28 ;
29 [label=<Sensor_16 &le; 0.184<br/>gini = 0.026<br/>samples = 2245<br/>value = [2215, 7, 23]<br/>class = Intermediate_event>, fillcolor="#e5833c"] ;
28 -> 29 ;
30 [label=<gini = 0.0<br/>samples = 1<br/>value = [0, 0, 1]<br/>class = Toe off>, fillcolor="#8139e5"] ;
29 -> 30 ;
31 [label=<Sensor_20 &le; 0.851<br/>gini = 0.026<br/>samples = 2244<br/>value = [2215, 7, 22]<br/>class = Intermediate_event>, fillcolor="#e5833c"] ;
29 -> 31 ;
32 [label=<Sensor_29 &le; 0.946<br/>gini = 0.025<br/>samples = 2243<br/>value = [2215, 7, 21]<br/>class = Intermediate_event>, fillcolor="#e5833b"] ;
31 -> 32 ;
33 [label=<Sensor_30 &le; 0.828<br/>gini = 0.024<br/>samples = 2242<br/>value = [2215, 7, 20]<br/>class = Intermediate_event>, fillcolor="#e5833b"] ;
32 -> 33 ;
34 [label=<Sensor_20 &le; 0.838<br/>gini = 0.017<br/>samples = 2134<br/>value = [2116, 7, 11]<br/>class = Intermediate_event>, fillcolor="#e5823b"] ;
33 -> 34 ;
35 [label=<Sensor_10 &le; 0.001<br/>gini = 0.016<br/>samples = 2131<br/>value = [2114, 7, 10]<br/>class = Intermediate_event>, fillcolor="#e5823b"] ;
34 -> 35 ;
36 [label=<Sensor_22 &le; 0.488<br/>gini = 0.121<br/>samples = 62<br/>value = [58, 0, 4]<br/>class = Intermediate_event>, fillcolor="#e78a47"] ;
35 -> 36 ;
37 [label=<Sensor_10 &le; 0.001<br/>gini = 0.033<br/>samples = 59<br/>value = [58, 0, 1]<br/>class = Intermediate_event>, fillcolor="#e5833c"] ;
36 -> 37 ;
38 [label=<gini = 0.0<br/>samples = 58<br/>value = [58, 0, 0]<br/>class = Intermediate_event>, fillcolor="#e58139"] ;
37 -> 38 ;
39 [label=<gini = 0.0<br/>samples = 1<br/>value = [0, 0, 1]<br/>class = Toe off>, fillcolor="#8139e5"] ;
37 -> 39 ;
40 [label=<gini = 0.0<br/>samples = 3<br/>value = [0, 0, 3]<br/>class = Toe off>, fillcolor="#8139e5"] ;
36 -> 40 ;
41 [label=<Sensor_31 &le; 0.7<br/>gini = 0.013<br/>samples = 2069<br/>value = [2056, 7, 6]<br/>class = Intermediate_event>, fillcolor="#e5823a"] ;
35 -> 41 ;
42 [label=<Sensor_7 &le; 0.576<br/>gini = 0.011<br/>samples = 2051<br/>value = [2040, 6, 5]<br/>class = Intermediate_event>, fillcolor="#e5823a"] ;
41 -> 42 ;
43 [label=<Sensor_28 &le; 0.926<br/>gini = 0.006<br/>samples = 1889<br/>value = [1883, 2, 4]<br/>class = Intermediate_event>, fillcolor="#e5813a"] ;
42 -> 43 ;
44 [label=<Sensor_11 &le; 0.061<br/>gini = 0.005<br/>samples = 1873<br/>value = [1868, 2, 3]<br/>class = Intermediate_event>, fillcolor="#e5813a"] ;
43 -> 44 ;
45 [label=<Sensor_28 &le; 0.85<br/>gini = 0.029<br/>samples = 203<br/>value = [200, 1, 2]<br/>class = Intermediate_event>, fillcolor="#e5833c"] ;
44 -> 45 ;
46 [label=<Sensor_15 &le; 0.035<br/>gini = 0.02<br/>samples = 202<br/>value = [200, 0, 2]<br/>class = Intermediate_event>, fillcolor="#e5823b"] ;
45 -> 46 ;
47 [label=<Sensor_30 &le; 0.711<br/>gini = 0.137<br/>samples = 27<br/>value = [25, 0, 2]<br/>class = Intermediate_event>, fillcolor="#e78b49"] ;
46 -> 47 ;
48 [label=<Sensor_28 &le; 0.631<br/>gini = 0.074<br/>samples = 26<br/>value = [25, 0, 1]<br/>class = Intermediate_event>, fillcolor="#e68641"] ;
47 -> 48 ;
49 [label=<gini = 0.0<br/>samples = 22<br/>value = [22, 0, 0]<br/>class = Intermediate_event>, fillcolor="#e58139"] ;
48 -> 49 ;
50 [label=<Sensor_13 &le; 0.255<br/>gini = 0.375<br/>samples = 4<br/>value = [3, 0, 1]<br/>class = Intermediate_event>, fillcolor="#eeab7b"] ;
48 -> 50 ;
51 [label=<gini = 0.0<br/>samples = 1<br/>value = [0, 0, 1]<br/>class = Toe off>, fillcolor="#8139e5"] ;
50 -> 51 ;
52 [label=<gini = 0.0<br/>samples = 3<br/>value = [3, 0, 0]<br/>class = Intermediate_event>, fillcolor="#e58139"] ;
50 -> 52 ;
53 [label=<gini = 0.0<br/>samples = 1<br/>value = [0, 0, 1]<br/>class = Toe off>, fillcolor="#8139e5"] ;
47 -> 53 ;
54 [label=<gini = 0.0<br/>samples = 175<br/>value = [175, 0, 0]<br/>class = Intermediate_event>, fillcolor="#e58139"] ;
46 -> 54 ;
55 [label=<gini = 0.0<br/>samples = 1<br/>value = [0, 1, 0]<br/>class = Heel Strike>, fillcolor="#39e581"] ;
45 -> 55 ;
56 [label=<Sensor_2 &le; 0.51<br/>gini = 0.002<br/>samples = 1670<br/>value = [1668, 1, 1]<br/>class = Intermediate_event>, fillcolor="#e58139"] ;
44 -> 56 ;
57 [label=<Sensor_13 &le; 0.835<br/>gini = 0.001<br/>samples = 1627<br/>value = [1626, 0, 1]<br/>class = Intermediate_event>, fillcolor="#e58139"] ;
56 -> 57 ;
58 [label=<gini = 0.0<br/>samples = 1489<br/>value = [1489, 0, 0]<br/>class = Intermediate_event>, fillcolor="#e58139"] ;
57 -> 58 ;
59 [label=<Sensor_13 &le; 0.835<br/>gini = 0.014<br/>samples = 138<br/>value = [137, 0, 1]<br/>class = Intermediate_event>, fillcolor="#e5823a"] ;
57 -> 59 ;
60 [label=<gini = 0.0<br/>samples = 1<br/>value = [0, 0, 1]<br/>class = Toe off>, fillcolor="#8139e5"] ;
59 -> 60 ;
61 [label=<gini = 0.0<br/>samples = 137<br/>value = [137, 0, 0]<br/>class = Intermediate_event>, fillcolor="#e58139"] ;
59 -> 61 ;
62 [label=<Sensor_31 &le; 0.372<br/>gini = 0.045<br/>samples = 43<br/>value = [42, 1, 0]<br/>class = Intermediate_event>, fillcolor="#e6843e"] ;
56 -> 62 ;
63 [label=<gini = 0.0<br/>samples = 42<br/>value = [42, 0, 0]<br/>class = Intermediate_event>, fillcolor="#e58139"] ;
62 -> 63 ;
64 [label=<gini = 0.0<br/>samples = 1<br/>value = [0, 1, 0]<br/>class = Heel Strike>, fillcolor="#39e581"] ;
62 -> 64 ;
65 [label=<Sensor_8 &le; 0.066<br/>gini = 0.117<br/>samples = 16<br/>value = [15, 0, 1]<br/>class = Intermediate_event>, fillcolor="#e78946"] ;
43 -> 65 ;
66 [label=<gini = 0.0<br/>samples = 1<br/>value = [0, 0, 1]<br/>class = Toe off>, fillcolor="#8139e5"] ;
65 -> 66 ;
67 [label=<gini = 0.0<br/>samples = 15<br/>value = [15, 0, 0]<br/>class = Intermediate_event>, fillcolor="#e58139"] ;
65 -> 67 ;
68 [label=<Sensor_1 &le; 0.002<br/>gini = 0.06<br/>samples = 162<br/>value = [157, 4, 1]<br/>class = Intermediate_event>, fillcolor="#e6853f"] ;
42 -> 68 ;
69 [label=<Sensor_31 &le; 0.172<br/>gini = 0.612<br/>samples = 7<br/>value = [3, 3, 1]<br/>class = Intermediate_event>, fillcolor="#ffffff"] ;
68 -> 69 ;
70 [label=<gini = 0.0<br/>samples = 3<br/>value = [3, 0, 0]<br/>class = Intermediate_event>, fillcolor="#e58139"] ;
69 -> 70 ;
71 [label=<Sensor_18 &le; 0.004<br/>gini = 0.375<br/>samples = 4<br/>value = [0, 3, 1]<br/>class = Heel Strike>, fillcolor="#7beeab"] ;
69 -> 71 ;
72 [label=<gini = 0.0<br/>samples = 3<br/>value = [0, 3, 0]<br/>class = Heel Strike>, fillcolor="#39e581"] ;
71 -> 72 ;
73 [label=<gini = 0.0<br/>samples = 1<br/>value = [0, 0, 1]<br/>class = Toe off>, fillcolor="#8139e5"] ;
71 -> 73 ;
74 [label=<Sensor_19 &le; 0.012<br/>gini = 0.013<br/>samples = 155<br/>value = [154, 1, 0]<br/>class = Intermediate_event>, fillcolor="#e5823a"] ;
68 -> 74 ;
75 [label=<gini = 0.0<br/>samples = 149<br/>value = [149, 0, 0]<br/>class = Intermediate_event>, fillcolor="#e58139"] ;
74 -> 75 ;
76 [label=<Sensor_3 &le; 0.008<br/>gini = 0.278<br/>samples = 6<br/>value = [5, 1, 0]<br/>class = Intermediate_event>, fillcolor="#ea9a61"] ;
74 -> 76 ;
77 [label=<gini = 0.0<br/>samples = 1<br/>value = [0, 1, 0]<br/>class = Heel Strike>, fillcolor="#39e581"] ;
76 -> 77 ;
78 [label=<gini = 0.0<br/>samples = 5<br/>value = [5, 0, 0]<br/>class = Intermediate_event>, fillcolor="#e58139"] ;
76 -> 78 ;
79 [label=<Sensor_27 &le; 0.412<br/>gini = 0.204<br/>samples = 18<br/>value = [16, 1, 1]<br/>class = Intermediate_event>, fillcolor="#e89050"] ;
41 -> 79 ;
80 [label=<Sensor_5 &le; 0.187<br/>gini = 0.5<br/>samples = 2<br/>value = [0, 1, 1]<br/>class = Heel Strike>, fillcolor="#ffffff"] ;
79 -> 80 ;
81 [label=<gini = 0.0<br/>samples = 1<br/>value = [0, 1, 0]<br/>class = Heel Strike>, fillcolor="#39e581"] ;
80 -> 81 ;
82 [label=<gini = 0.0<br/>samples = 1<br/>value = [0, 0, 1]<br/>class = Toe off>, fillcolor="#8139e5"] ;
80 -> 82 ;
83 [label=<gini = 0.0<br/>samples = 16<br/>value = [16, 0, 0]<br/>class = Intermediate_event>, fillcolor="#e58139"] ;
79 -> 83 ;
84 [label=<Sensor_7 &le; 0.011<br/>gini = 0.444<br/>samples = 3<br/>value = [2, 0, 1]<br/>class = Intermediate_event>, fillcolor="#f2c09c"] ;
34 -> 84 ;
85 [label=<gini = 0.0<br/>samples = 1<br/>value = [0, 0, 1]<br/>class = Toe off>, fillcolor="#8139e5"] ;
84 -> 85 ;
86 [label=<gini = 0.0<br/>samples = 2<br/>value = [2, 0, 0]<br/>class = Intermediate_event>, fillcolor="#e58139"] ;
84 -> 86 ;
87 [label=<Sensor_13 &le; 0.315<br/>gini = 0.153<br/>samples = 108<br/>value = [99, 0, 9]<br/>class = Intermediate_event>, fillcolor="#e78c4b"] ;
33 -> 87 ;
88 [label=<gini = 0.0<br/>samples = 9<br/>value = [0, 0, 9]<br/>class = Toe off>, fillcolor="#8139e5"] ;
87 -> 88 ;
89 [label=<gini = 0.0<br/>samples = 99<br/>value = [99, 0, 0]<br/>class = Intermediate_event>, fillcolor="#e58139"] ;
87 -> 89 ;
90 [label=<gini = 0.0<br/>samples = 1<br/>value = [0, 0, 1]<br/>class = Toe off>, fillcolor="#8139e5"] ;
32 -> 90 ;
91 [label=<gini = 0.0<br/>samples = 1<br/>value = [0, 0, 1]<br/>class = Toe off>, fillcolor="#8139e5"] ;
31 -> 91 ;
92 [label=<gini = 0.0<br/>samples = 1<br/>value = [0, 1, 0]<br/>class = Heel Strike>, fillcolor="#39e581"] ;
28 -> 92 ;
93 [label=<gini = 0.0<br/>samples = 2<br/>value = [0, 0, 2]<br/>class = Toe off>, fillcolor="#8139e5"] ;
27 -> 93 ;
94 [label=<Sensor_14 &le; 0.005<br/>gini = 0.219<br/>samples = 8<br/>value = [1, 0, 7]<br/>class = Toe off>, fillcolor="#9355e9"] ;
26 -> 94 ;
95 [label=<gini = 0.0<br/>samples = 1<br/>value = [1, 0, 0]<br/>class = Intermediate_event>, fillcolor="#e58139"] ;
94 -> 95 ;
96 [label=<gini = 0.0<br/>samples = 7<br/>value = [0, 0, 7]<br/>class = Toe off>, fillcolor="#8139e5"] ;
94 -> 96 ;
97 [label=<Sensor_16 &le; 0.365<br/>gini = 0.397<br/>samples = 11<br/>value = [8, 0, 3]<br/>class = Intermediate_event>, fillcolor="#efb083"] ;
7 -> 97 ;
98 [label=<gini = 0.0<br/>samples = 8<br/>value = [8, 0, 0]<br/>class = Intermediate_event>, fillcolor="#e58139"] ;
97 -> 98 ;
99 [label=<gini = 0.0<br/>samples = 3<br/>value = [0, 0, 3]<br/>class = Toe off>, fillcolor="#8139e5"] ;
97 -> 99 ;
100 [label=<gini = 0.0<br/>samples = 1<br/>value = [0, 0, 1]<br/>class = Toe off>, fillcolor="#8139e5"] ;
6 -> 100 ;
101 [label=<Sensor_13 &le; 0.467<br/>gini = 0.39<br/>samples = 28<br/>value = [21, 1, 6]<br/>class = Intermediate_event>, fillcolor="#eda978"] ;
5 -> 101 ;
102 [label=<Sensor_13 &le; 0.418<br/>gini = 0.245<br/>samples = 7<br/>value = [0, 1, 6]<br/>class = Toe off>, fillcolor="#965ae9"] ;
101 -> 102 ;
103 [label=<gini = 0.0<br/>samples = 6<br/>value = [0, 0, 6]<br/>class = Toe off>, fillcolor="#8139e5"] ;
102 -> 103 ;
104 [label=<gini = 0.0<br/>samples = 1<br/>value = [0, 1, 0]<br/>class = Heel Strike>, fillcolor="#39e581"] ;
102 -> 104 ;
105 [label=<gini = 0.0<br/>samples = 21<br/>value = [21, 0, 0]<br/>class = Intermediate_event>, fillcolor="#e58139"] ;
101 -> 105 ;
106 [label=<Sensor_6 &le; 0.082<br/>gini = 0.408<br/>samples = 21<br/>value = [15, 0, 6]<br/>class = Intermediate_event>, fillcolor="#efb388"] ;
4 -> 106 ;
107 [label=<gini = 0.0<br/>samples = 6<br/>value = [0, 0, 6]<br/>class = Toe off>, fillcolor="#8139e5"] ;
106 -> 107 ;
108 [label=<gini = 0.0<br/>samples = 15<br/>value = [15, 0, 0]<br/>class = Intermediate_event>, fillcolor="#e58139"] ;
106 -> 108 ;
109 [label=<Sensor_19 &le; 0.807<br/>gini = 0.151<br/>samples = 656<br/>value = [602, 0, 54]<br/>class = Intermediate_event>, fillcolor="#e78c4b"] ;
3 -> 109 ;
110 [label=<Sensor_16 &le; 0.047<br/>gini = 0.122<br/>samples = 644<br/>value = [602, 0, 42]<br/>class = Intermediate_event>, fillcolor="#e78a47"] ;
109 -> 110 ;
111 [label=<Sensor_21 &le; 0.261<br/>gini = 0.5<br/>samples = 33<br/>value = [17, 0, 16]<br/>class = Intermediate_event>, fillcolor="#fdf8f3"] ;
110 -> 111 ;
112 [label=<gini = 0.0<br/>samples = 16<br/>value = [16, 0, 0]<br/>class = Intermediate_event>, fillcolor="#e58139"] ;
111 -> 112 ;
113 [label=<Sensor_20 &le; 0.464<br/>gini = 0.111<br/>samples = 17<br/>value = [1, 0, 16]<br/>class = Toe off>, fillcolor="#8945e7"] ;
111 -> 113 ;
114 [label=<gini = 0.0<br/>samples = 1<br/>value = [1, 0, 0]<br/>class = Intermediate_event>, fillcolor="#e58139"] ;
113 -> 114 ;
115 [label=<gini = 0.0<br/>samples = 16<br/>value = [0, 0, 16]<br/>class = Toe off>, fillcolor="#8139e5"] ;
113 -> 115 ;
116 [label=<Sensor_19 &le; 0.613<br/>gini = 0.081<br/>samples = 611<br/>value = [585, 0, 26]<br/>class = Intermediate_event>, fillcolor="#e68742"] ;
110 -> 116 ;
117 [label=<Sensor_22 &le; 0.782<br/>gini = 0.019<br/>samples = 531<br/>value = [526, 0, 5]<br/>class = Intermediate_event>, fillcolor="#e5823b"] ;
116 -> 117 ;
118 [label=<Sensor_29 &le; 0.681<br/>gini = 0.011<br/>samples = 529<br/>value = [526, 0, 3]<br/>class = Intermediate_event>, fillcolor="#e5823a"] ;
117 -> 118 ;
119 [label=<Sensor_21 &le; 0.423<br/>gini = 0.008<br/>samples = 528<br/>value = [526, 0, 2]<br/>class = Intermediate_event>, fillcolor="#e5813a"] ;
118 -> 119 ;
120 [label=<Sensor_19 &le; 0.579<br/>gini = 0.004<br/>samples = 523<br/>value = [522, 0, 1]<br/>class = Intermediate_event>, fillcolor="#e58139"] ;
119 -> 120 ;
121 [label=<gini = 0.0<br/>samples = 494<br/>value = [494, 0, 0]<br/>class = Intermediate_event>, fillcolor="#e58139"] ;
120 -> 121 ;
122 [label=<Sensor_25 &le; 0.925<br/>gini = 0.067<br/>samples = 29<br/>value = [28, 0, 1]<br/>class = Intermediate_event>, fillcolor="#e68640"] ;
120 -> 122 ;
123 [label=<gini = 0.0<br/>samples = 28<br/>value = [28, 0, 0]<br/>class = Intermediate_event>, fillcolor="#e58139"] ;
122 -> 123 ;
124 [label=<gini = 0.0<br/>samples = 1<br/>value = [0, 0, 1]<br/>class = Toe off>, fillcolor="#8139e5"] ;
122 -> 124 ;
125 [label=<Sensor_23 &le; 0.156<br/>gini = 0.32<br/>samples = 5<br/>value = [4, 0, 1]<br/>class = Intermediate_event>, fillcolor="#eca06a"] ;
119 -> 125 ;
126 [label=<gini = 0.0<br/>samples = 4<br/>value = [4, 0, 0]<br/>class = Intermediate_event>, fillcolor="#e58139"] ;
125 -> 126 ;
127 [label=<gini = 0.0<br/>samples = 1<br/>value = [0, 0, 1]<br/>class = Toe off>, fillcolor="#8139e5"] ;
125 -> 127 ;
128 [label=<gini = 0.0<br/>samples = 1<br/>value = [0, 0, 1]<br/>class = Toe off>, fillcolor="#8139e5"] ;
118 -> 128 ;
129 [label=<gini = 0.0<br/>samples = 2<br/>value = [0, 0, 2]<br/>class = Toe off>, fillcolor="#8139e5"] ;
117 -> 129 ;
130 [label=<Sensor_22 &le; 0.489<br/>gini = 0.387<br/>samples = 80<br/>value = [59, 0, 21]<br/>class = Intermediate_event>, fillcolor="#eeae7f"] ;
116 -> 130 ;
131 [label=<Sensor_18 &le; 0.646<br/>gini = 0.064<br/>samples = 60<br/>value = [58, 0, 2]<br/>class = Intermediate_event>, fillcolor="#e68540"] ;
130 -> 131 ;
132 [label=<Sensor_21 &le; 0.36<br/>gini = 0.033<br/>samples = 59<br/>value = [58, 0, 1]<br/>class = Intermediate_event>, fillcolor="#e5833c"] ;
131 -> 132 ;
133 [label=<gini = 0.0<br/>samples = 58<br/>value = [58, 0, 0]<br/>class = Intermediate_event>, fillcolor="#e58139"] ;
132 -> 133 ;
134 [label=<gini = 0.0<br/>samples = 1<br/>value = [0, 0, 1]<br/>class = Toe off>, fillcolor="#8139e5"] ;
132 -> 134 ;
135 [label=<gini = 0.0<br/>samples = 1<br/>value = [0, 0, 1]<br/>class = Toe off>, fillcolor="#8139e5"] ;
131 -> 135 ;
136 [label=<Sensor_21 &le; 0.162<br/>gini = 0.095<br/>samples = 20<br/>value = [1, 0, 19]<br/>class = Toe off>, fillcolor="#8843e6"] ;
130 -> 136 ;
137 [label=<gini = 0.0<br/>samples = 1<br/>value = [1, 0, 0]<br/>class = Intermediate_event>, fillcolor="#e58139"] ;
136 -> 137 ;
138 [label=<gini = 0.0<br/>samples = 19<br/>value = [0, 0, 19]<br/>class = Toe off>, fillcolor="#8139e5"] ;
136 -> 138 ;
139 [label=<gini = 0.0<br/>samples = 12<br/>value = [0, 0, 12]<br/>class = Toe off>, fillcolor="#8139e5"] ;
109 -> 139 ;
140 [label=<gini = 0.0<br/>samples = 6<br/>value = [0, 0, 6]<br/>class = Toe off>, fillcolor="#8139e5"] ;
2 -> 140 ;
141 [label=<Sensor_30 &le; 0.673<br/>gini = 0.466<br/>samples = 122<br/>value = [81, 4, 37]<br/>class = Intermediate_event>, fillcolor="#f2be99"] ;
1 -> 141 ;
142 [label=<Sensor_13 &le; 0.475<br/>gini = 0.132<br/>samples = 86<br/>value = [80, 4, 2]<br/>class = Intermediate_event>, fillcolor="#e78a47"] ;
141 -> 142 ;
143 [label=<Sensor_28 &le; 0.86<br/>gini = 0.071<br/>samples = 82<br/>value = [79, 1, 2]<br/>class = Intermediate_event>, fillcolor="#e68640"] ;
142 -> 143 ;
144 [label=<Sensor_28 &le; 0.833<br/>gini = 0.025<br/>samples = 80<br/>value = [79, 0, 1]<br/>class = Intermediate_event>, fillcolor="#e5833c"] ;
143 -> 144 ;
145 [label=<gini = 0.0<br/>samples = 77<br/>value = [77, 0, 0]<br/>class = Intermediate_event>, fillcolor="#e58139"] ;
144 -> 145 ;
146 [label=<Sensor_12 &le; 0.115<br/>gini = 0.444<br/>samples = 3<br/>value = [2, 0, 1]<br/>class = Intermediate_event>, fillcolor="#f2c09c"] ;
144 -> 146 ;
147 [label=<gini = 0.0<br/>samples = 2<br/>value = [2, 0, 0]<br/>class = Intermediate_event>, fillcolor="#e58139"] ;
146 -> 147 ;
148 [label=<gini = 0.0<br/>samples = 1<br/>value = [0, 0, 1]<br/>class = Toe off>, fillcolor="#8139e5"] ;
146 -> 148 ;
149 [label=<Sensor_14 &le; 0.02<br/>gini = 0.5<br/>samples = 2<br/>value = [0, 1, 1]<br/>class = Heel Strike>, fillcolor="#ffffff"] ;
143 -> 149 ;
150 [label=<gini = 0.0<br/>samples = 1<br/>value = [0, 0, 1]<br/>class = Toe off>, fillcolor="#8139e5"] ;
149 -> 150 ;
151 [label=<gini = 0.0<br/>samples = 1<br/>value = [0, 1, 0]<br/>class = Heel Strike>, fillcolor="#39e581"] ;
149 -> 151 ;
152 [label=<Sensor_30 &le; 0.0<br/>gini = 0.375<br/>samples = 4<br/>value = [1, 3, 0]<br/>class = Heel Strike>, fillcolor="#7beeab"] ;
142 -> 152 ;
153 [label=<gini = 0.0<br/>samples = 3<br/>value = [0, 3, 0]<br/>class = Heel Strike>, fillcolor="#39e581"] ;
152 -> 153 ;
154 [label=<gini = 0.0<br/>samples = 1<br/>value = [1, 0, 0]<br/>class = Intermediate_event>, fillcolor="#e58139"] ;
152 -> 154 ;
155 [label=<Sensor_32 &le; 0.358<br/>gini = 0.054<br/>samples = 36<br/>value = [1, 0, 35]<br/>class = Toe off>, fillcolor="#853fe6"] ;
141 -> 155 ;
156 [label=<gini = 0.0<br/>samples = 35<br/>value = [0, 0, 35]<br/>class = Toe off>, fillcolor="#8139e5"] ;
155 -> 156 ;
157 [label=<gini = 0.0<br/>samples = 1<br/>value = [1, 0, 0]<br/>class = Intermediate_event>, fillcolor="#e58139"] ;
155 -> 157 ;
158 [label=<Sensor_31 &le; 0.136<br/>gini = 0.128<br/>samples = 118<br/>value = [2, 110, 6]<br/>class = Heel Strike>, fillcolor="#47e78a"] ;
0 -> 158 [labeldistance=2.5, labelangle=-45, headlabel="False"] ;
159 [label=<Sensor_9 &le; 0.116<br/>gini = 0.056<br/>samples = 105<br/>value = [2, 102, 1]<br/>class = Heel Strike>, fillcolor="#3fe685"] ;
158 -> 159 ;
160 [label=<gini = 0.0<br/>samples = 1<br/>value = [1, 0, 0]<br/>class = Intermediate_event>, fillcolor="#e58139"] ;
159 -> 160 ;
161 [label=<Sensor_2 &le; 0.988<br/>gini = 0.038<br/>samples = 104<br/>value = [1, 102, 1]<br/>class = Heel Strike>, fillcolor="#3de683"] ;
159 -> 161 ;
162 [label=<Sensor_13 &le; 0.025<br/>gini = 0.019<br/>samples = 102<br/>value = [0, 101, 1]<br/>class = Heel Strike>, fillcolor="#3be582"] ;
161 -> 162 ;
163 [label=<Sensor_9 &le; 0.42<br/>gini = 0.32<br/>samples = 5<br/>value = [0, 4, 1]<br/>class = Heel Strike>, fillcolor="#6aeca0"] ;
162 -> 163 ;
164 [label=<gini = 0.0<br/>samples = 1<br/>value = [0, 0, 1]<br/>class = Toe off>, fillcolor="#8139e5"] ;
163 -> 164 ;
165 [label=<gini = 0.0<br/>samples = 4<br/>value = [0, 4, 0]<br/>class = Heel Strike>, fillcolor="#39e581"] ;
163 -> 165 ;
166 [label=<gini = 0.0<br/>samples = 97<br/>value = [0, 97, 0]<br/>class = Heel Strike>, fillcolor="#39e581"] ;
162 -> 166 ;
167 [label=<Sensor_1 &le; 0.702<br/>gini = 0.5<br/>samples = 2<br/>value = [1, 1, 0]<br/>class = Intermediate_event>, fillcolor="#ffffff"] ;
161 -> 167 ;
168 [label=<gini = 0.0<br/>samples = 1<br/>value = [0, 1, 0]<br/>class = Heel Strike>, fillcolor="#39e581"] ;
167 -> 168 ;
169 [label=<gini = 0.0<br/>samples = 1<br/>value = [1, 0, 0]<br/>class = Intermediate_event>, fillcolor="#e58139"] ;
167 -> 169 ;
170 [label=<Sensor_25 &le; 0.044<br/>gini = 0.473<br/>samples = 13<br/>value = [0, 8, 5]<br/>class = Heel Strike>, fillcolor="#b5f5d0"] ;
158 -> 170 ;
171 [label=<Sensor_10 &le; 0.914<br/>gini = 0.278<br/>samples = 6<br/>value = [0, 1, 5]<br/>class = Toe off>, fillcolor="#9a61ea"] ;
170 -> 171 ;
172 [label=<gini = 0.0<br/>samples = 5<br/>value = [0, 0, 5]<br/>class = Toe off>, fillcolor="#8139e5"] ;
171 -> 172 ;
173 [label=<gini = 0.0<br/>samples = 1<br/>value = [0, 1, 0]<br/>class = Heel Strike>, fillcolor="#39e581"] ;
171 -> 173 ;
174 [label=<gini = 0.0<br/>samples = 7<br/>value = [0, 7, 0]<br/>class = Heel Strike>, fillcolor="#39e581"] ;
170 -> 174 ;
}